#ifndef WEIGHTS_H
#define WEIGHTS_H

#include <stdint.h>

const int8_t conv1_weights[] = {
61, -33, 15, 69, 69, -45, 77, 25, 0, 77, 50, 16, -9, -9, -58, 76, 
-17, 23, -15, 10, 60, 27, -15, -53, -19, -52, 19, -56, -58, 51, 70, 55, 
-56, -82, 108, 22, 47, 83, 112, -3, 35, -81, 3, -52, 22, 84, -53, -55, 
65, 0, -24, -18, -12, -7, -15, -81, -44, 38, 68, -75, 6, -11, 43, -66, 
71, -24, -38, 47, 47, -29, -41, -53, 39, -15, 74, -95, -50, -21, -49, -77, 
88, 47, 46, 19, -12, -87, -30, -64, 73, -27, 55, -37, 50, 17, -39, -55, 
82, 64, 38, -65, -64, 9, -59, 60, -58, -22, -15, 79, -53, 61, -2, 7, 
45, 26, 98, -83, -52, -90, -51, 86, 81, 6, 49, -15, -62, -3, 64, -24, 
86, -74, -45, -27, -33, 39, -53, 90, -15, -31, -70, 104, 60, -51, 35, -54, 
84, 74, 27, -10, 19, 54, 61, -63, -79, 4, -18, -86, 82, 70, 51, 18, 
41, -49, 91, 86, 47, -8, 127, 12, -37, -36, 49, -92, 32, 51, 47, -54, 
81, 74, -42, 37, -72, -28, 90, 51, 28, -64, -59, -67, 71, 64, -19, 69, 
-77, 62, 24, -2, 30, -14, -69, -54, -26, 35, 6, -48, -70, 61, 20, -43, 
-63, -74, 61, 75, 93, 81, 16, 45, -58, -28, -77, 53, -53, -64, -51, -3, 
86, 65, 46, -13, 84, 59, 54, 6, 68, 53, 90, -99, -2, -61, -40, -84, 
-9, -88, -47, -54, -56, -77, -52, 76, 90, -15, 32, 55, 67, -19, 6, -87, 
-73, 28, -35, -67, 26, -8, 4, 62, 42, -77, 7, 109, -9, 46, -53, 15, 
42, -59, 3, 17, 8, -35, -48, 73, 59, -35, -9, 89, -46, 44, 31, -33, 
56, 54, -45, 44, -32, 55, -44, 21, -84, 13, 23, 69, 72, -58, -30, 29, 
79, 13, -47, -38, -36, 17, 60, 60, 31, -30, 69, 14, -25, -55, 57, -34, 
86, -7, -50, 69, -3, 28, -33, -23, 22, -5, -54, -31, 112, -39, 77, -50, 
-36, 45, -29, 60, 10, 28, 44, 77, 54, 0, 74, 15, 60, 52, -52, 28, 
66, 2, -26, 42, 0, -41, 9, -39, -88, 76, 68, 40, -29, -23, 13, 48, 
-23, -77, -90, 39, -25, 80, -89, -8, -25, 49, 1, -22, -58, -20, -79, -80, 
-51, 0, -61, -52, -73, -21, 28, -53, 71, 81, -75, 59, 56, -40, 17, 77, 
-7, 40, -32, -51, -17, 2, -71, 15, 92, 37, 80, 66, -28, 73, -40, -93, 
-6, -44, 72, -34, 8, -41, -2, -67, 82, -14, -25, -5, -94, -17, 46, -11, 

};

const int8_t conv1_bias[] = {
-16, -8, 66, -57, -89, -72, 98, -87, -127, 1, -58, 0, -76, -70, -18, -20, 

};

const int8_t conv2_weights[] = {
36, 13, -31, -5, -20, -22, -23, 10, 16, 35, 17, -30, 41, -27, 18, -8, 
-26, -40, -22, -10, -30, -28, 37, -29, -19, 46, -49, 16, 8, 30, -14, -3, 
19, 41, 19, 55, 31, -20, 36, -19, 47, 25, 22, -42, 7, 33, 32, 7, 
-46, 59, -3, 8, -12, 38, 35, 55, 10, 68, 33, 36, 17, -1, 24, 25, 
11, -7, 5, -27, -9, -9, 17, -51, 61, 125, 15, 3, -50, 0, 37, 29, 
43, 36, 77, 39, -31, -35, -47, -24, 20, -1, -4, 21, 11, -14, 81, -23, 
-11, 2, 56, -8, -35, 13, -27, -39, 8, -28, -13, -20, 20, -4, -25, -8, 
18, 33, 15, -37, -16, 31, -24, 46, 14, 19, 23, 35, 7, 18, 13, 47, 
-23, 45, 27, 19, -46, 5, 38, -43, 49, 35, 47, 2, -18, -4, -23, 38, 
55, -19, 46, -15, 24, -36, -37, 65, -48, 3, -46, 29, -47, -18, 53, -31, 
14, 41, 19, 59, 1, -2, -25, 39, 32, -5, -15, -4, 19, 40, 48, -32, 
0, 45, -14, -3, 28, 17, 0, 78, 17, 35, 47, 50, -4, 29, 21, 25, 
-30, -35, 44, -2, -6, 31, -36, -18, 48, -6, 7, 17, -47, 17, 45, -9, 
-59, 19, 9, 44, -55, -13, -33, -14, 17, 6, 40, -34, -12, 9, 33, 4, 
-32, -22, -6, 28, -16, 11, -41, -29, 51, -8, 9, 13, 28, -41, -44, 33, 
14, 28, -11, 29, -26, 38, 25, -22, -40, -16, -30, 1, 3, 13, -20, -20, 
-35, -6, 32, -43, -21, -8, 25, -36, -6, 8, -32, -8, 33, 11, -18, -12, 
-8, -29, 12, -41, 1, 2, -9, -23, 7, 3, 40, -30, -43, -34, 34, -48, 
23, -12, 20, -13, -13, -12, 32, -2, -15, -44, 79, -38, -3, -22, 2, 15, 
-1, 14, -37, 13, 23, 55, 2, 53, 28, 47, 28, -43, -27, 4, 28, 6, 
24, 28, 25, 21, -48, 3, -39, -33, -12, 44, 5, -32, 44, -50, 16, 36, 
12, 30, 20, -31, 21, 25, 11, 14, 35, 47, -47, 2, 11, 12, 17, -16, 
-18, 25, 23, -20, -1, 30, 23, 38, -41, -32, 29, -6, -54, 17, 44, 31, 
58, 0, -34, 41, -19, 65, -38, 35, -18, -28, 68, -29, 20, 63, -9, 18, 
-17, 24, 10, 54, 44, 1, 26, 29, 53, -62, 18, 31, 36, 56, 69, -38, 
-2, 66, -31, 8, -7, 51, -10, 83, 25, 44, 62, 44, -5, 67, 33, 7, 
-3, -35, 43, -1, 28, 40, -7, 3, 31, -1, -36, 13, -19, -31, -14, 2, 
-41, -5, 59, 14, -26, -3, -21, -6, -17, 36, -8, 8, -25, -14, -9, -34, 
-24, 48, 20, 75, 72, 66, -38, 3, 60, 14, 50, -26, -37, 67, 33, 60, 
73, -13, -36, -1, -26, 48, -58, 35, 26, 7, 85, 37, -13, 38, -22, 75, 
-20, -3, 1, 1, -28, 43, 26, 28, -1, 18, 28, 12, 13, 14, 15, 50, 
-20, 16, -18, 34, -5, 22, 5, 9, -7, -30, 6, 11, 38, 1, -3, 40, 
-24, 32, -41, -26, 10, -27, -22, 31, -4, 45, -24, -26, -13, 21, 11, 20, 
36, -3, -16, -29, 19, 27, 42, -21, -5, 6, 26, 22, -24, -32, -8, -2, 
25, 30, -14, -4, -25, -13, 8, 17, -9, 18, -12, 5, 0, 5, -7, 56, 
-23, -18, 36, -1, -14, -18, 44, -2, 26, -7, 29, 19, -3, 21, 15, 12, 
-66, 12, 38, -20, -47, -31, 21, 13, 81, 116, -26, 27, 21, -47, 41, -8, 
-6, -18, 116, 21, -8, 37, 30, -35, 10, 0, -60, 10, -6, -58, 91, 13, 
28, 3, -13, 37, 15, 2, -20, -1, -21, 31, 25, -36, -2, 20, -29, 52, 
-3, 38, 50, -36, 22, 29, 13, -27, -15, 3, -21, 51, -43, 12, 8, 4, 
25, 45, 4, 3, -26, 26, 0, -23, 14, 15, 1, 32, 32, 14, 40, 41, 
-1, 35, 38, -28, -47, 20, -5, 29, 43, 24, 52, -14, 1, -44, -20, 35, 
33, 30, -15, 32, 34, 30, 5, 3, -4, -2, 44, 4, 7, -20, 25, 18, 
30, 0, -5, 19, 10, -23, -19, 67, 30, 38, 51, -20, 13, 41, -24, -15, 
20, -40, -1, 25, -43, -24, -35, 21, 10, 48, -10, 11, 49, 4, 7, 61, 
18, -15, -2, 4, -9, 20, 17, 23, -47, 78, 9, 66, 15, -3, 42, -60, 
7, -35, 3, 15, 45, 26, -24, 6, -31, -26, 1, 4, -27, -13, 45, -18, 
3, -19, -26, 23, -40, -30, -39, -39, -33, -5, -29, -29, -14, -18, -35, 10, 
20, 36, 2, -5, 21, -2, -23, -41, -10, -8, -9, 17, -4, 24, -12, 18, 
1, -49, 22, 15, -17, 36, -2, -10, 0, -2, 42, 20, -13, -30, -30, 30, 
22, -8, 32, -12, -26, 26, -23, -35, -21, -52, 64, -38, -5, 55, 43, 43, 
-26, 50, -47, 42, 28, 2, 13, 27, -5, 17, 61, -4, 43, 48, -11, 34, 
-21, -37, 36, -24, -15, 32, -24, -15, 25, -10, 5, 17, 23, 6, -19, 38, 
-9, -6, -13, 20, 31, 41, -1, -24, -31, -4, -15, -22, 33, -38, -3, -23, 
40, 64, -3, 48, 77, 33, -22, -29, -19, -36, 56, -1, 5, 11, 25, -45, 
18, 22, -28, 88, -56, 0, 19, 5, 43, 33, 4, -21, 34, 49, -39, 34, 
-1, -11, 29, 44, 32, 72, -37, 52, -11, -7, 46, 14, 29, -10, -19, 21, 
-6, 6, -26, -52, -33, -3, 4, 73, 19, 72, 37, 37, -1, -5, 30, -5, 
23, 18, -20, -28, -19, 27, -32, -11, 17, -20, -43, -21, -4, 17, 30, 18, 
44, 7, 58, 11, 26, -12, -3, 0, 16, 28, 35, 40, 13, -24, 32, -41, 
-11, 49, 7, 63, 16, 73, -38, 28, -27, -43, 12, -18, 15, 52, 68, 18, 
-11, 35, -26, 2, -26, 62, 0, 40, 60, 31, 62, 83, 43, -14, -35, -2, 
-39, 23, -34, 11, 23, -15, -26, 26, -8, 8, -9, 16, -55, -27, 51, 8, 
19, 44, -24, -44, 0, -15, -35, -17, -30, -30, -29, -16, -28, -8, 19, -27, 
7, -34, -28, -41, -10, 7, 3, -4, 46, -15, 28, -35, -38, -28, 22, -26, 
20, 9, 26, 19, 14, 8, 1, -46, -22, -6, -32, 36, -20, 27, -12, -22, 
8, -32, -16, 50, 36, -29, -7, 0, -32, 30, -19, -17, 34, 34, -47, 53, 
16, -4, -21, 14, 14, 23, 32, -13, 28, 12, 10, 21, 33, 25, 26, -38, 
-31, 33, -34, -17, 17, -42, -5, 0, 59, 45, -21, -21, -24, -7, 74, 32, 
4, -11, 29, -31, -25, -17, 1, 4, -10, -47, -39, 43, -35, -71, 82, 39, 
27, 19, -26, 0, 24, -4, 4, -9, -24, 28, -45, -3, -28, 42, -41, 23, 
38, -41, -7, -31, -31, 19, -15, 19, 8, 19, 32, -24, 11, -4, -30, 16, 
-34, -23, -34, 36, 21, 17, -8, -45, 34, -18, 19, 33, -2, -6, 78, -19, 
38, 7, 23, -7, 38, -3, -39, -49, 13, -43, -26, 44, -17, -24, -21, 30, 
1, 3, 22, -26, 39, -15, -12, -6, 32, 0, -32, -12, -7, -20, -25, -3, 
-10, -33, -19, -26, -18, 3, -12, 16, 52, -12, 39, 5, -36, -18, 7, -9, 
-27, 56, 19, -14, 12, -25, 17, 35, 44, -20, -78, -1, 76, -7, -28, 72, 
-19, -11, 33, -75, -21, 31, 50, -35, 72, 9, 9, 15, -29, 8, -52, 20, 
-38, -4, -44, -13, -19, 2, 0, 26, -19, 25, 20, -30, -41, -19, 7, -35, 
-12, 31, -18, 33, -28, 43, -37, -14, 8, -36, 17, 26, 23, 26, -43, -36, 
-27, -4, -6, 5, 5, -41, -17, -14, -5, 19, 33, 35, -48, 45, 47, 13, 
-24, 40, 21, 28, 7, 36, 11, -27, 42, -25, -37, 28, 10, 14, 26, 7, 
1, 10, 22, 31, 69, 44, 20, 46, 21, 7, 45, -9, 8, 29, -48, 16, 
12, 10, -53, -24, 23, 31, 37, 23, -18, -15, 21, 6, -37, 64, 24, 52, 
21, -29, -33, 27, 20, 2, -5, -5, -4, 14, -35, 2, -43, -16, -20, -24, 
-35, 19, 35, -8, 19, 1, 15, 23, -11, 2, -7, 34, 9, 23, 3, 17, 
24, -22, -44, -5, 65, 55, -18, 25, -79, -44, 82, -35, 75, 19, -2, 26, 
-14, 46, -53, 8, 11, 59, 26, 74, 3, 67, -24, -1, -12, -4, -53, 68, 
-18, 13, 38, -4, -14, 35, -13, 28, -29, -16, -24, -1, 37, 20, -55, 39, 
19, 39, 23, -27, -13, -10, 7, -32, 32, -28, 16, -1, 4, -52, -27, -33, 
-20, 25, -29, 37, 49, 0, 27, -44, 4, -4, 42, -16, 0, -27, -20, 1, 
-16, 1, 48, 19, -17, -35, -40, 20, 6, -30, -25, 2, 7, -15, 12, 18, 
-27, 6, -5, 44, 76, 21, 35, 19, 26, 22, 1, 24, 11, 60, 57, 78, 
63, 9, -16, -52, 23, 9, 22, 66, 73, 19, 81, -5, 18, 43, 30, 62, 
6, 35, 24, 4, -3, -24, 17, -26, 23, 4, -41, 36, -27, -1, 44, 40, 
2, 24, -21, 15, 7, -3, -33, -39, -29, -1, -25, 36, 23, 16, -31, -35, 
-6, -37, 29, -32, -11, 15, -21, 11, 43, 9, -42, -37, -1, 15, 7, -27, 
-37, -15, 5, -49, 26, 25, 0, 23, -28, -27, -18, 14, 9, 35, 18, 40, 
37, 30, -2, 17, 30, 5, -27, -12, 25, -19, 33, -21, 55, 15, -30, -7, 
-7, 41, 17, -7, 3, 35, -5, 28, 24, 34, 21, -3, 29, 71, 19, 46, 
-3, 33, 46, -58, 4, -32, 32, -72, 98, 63, -41, 41, -38, 20, -24, 6, 
24, -6, 60, 3, 19, -10, -20, -2, -21, -30, -36, -18, 1, -20, 62, -51, 
-32, -23, 58, 33, 32, 23, 14, -19, -14, -11, 53, 21, 2, 43, 18, -38, 
-26, -9, -14, 18, -13, -36, 0, 55, -36, 58, -24, 9, 33, 19, -5, 26, 
30, -27, 14, 49, -10, -14, -13, 38, 13, 17, 4, 10, 47, -13, 43, 14, 
-15, -33, -1, -24, 21, 17, -32, 15, -31, 2, 1, 0, -23, 35, 36, -17, 
31, -30, 51, 58, 48, 2, -41, 51, -1, -22, 18, -16, 44, 67, 65, 38, 
34, 26, -5, 19, -22, 35, -7, 11, 32, -8, -4, 5, 20, -15, -2, 39, 
-2, -1, 14, -15, -31, 31, -8, -20, 22, 19, -13, -30, -19, 28, -6, -33, 
-27, -6, -28, 46, -48, -2, -1, 24, 3, 99, 50, 20, -1, 33, 23, 63, 
9, 42, 13, 24, 0, 9, -37, -29, -34, -32, 2, 22, 0, -40, -46, 3, 
4, -32, 24, 2, -7, -25, -21, 36, -36, -5, -17, 33, 17, -19, 1, 1, 
34, 19, -40, -10, -22, 39, 7, -37, 32, -11, 25, -16, -4, -43, -14, 45, 
25, 46, -44, 33, 18, -37, -35, 39, 5, -9, -15, 44, -40, -17, -36, -38, 
10, 18, 26, -11, 6, 32, 11, 6, 19, -20, 39, -40, 19, -13, 41, -23, 
-6, 34, -35, -17, -12, 44, 35, 45, 39, -11, 26, 29, 15, 26, -24, -3, 
-11, -41, -18, -25, 35, -19, -28, -9, 18, 12, 17, 39, 53, -42, -32, -26, 
-34, -21, -8, 7, -24, -25, -26, 46, 2, 6, -12, 47, 30, -10, 28, -11, 
0, 30, 48, -12, 20, 38, 25, 15, 20, -25, 77, -28, -48, 27, 45, 74, 
36, -5, 37, 41, -39, 53, -19, 12, -17, 11, 28, -1, -8, 59, -15, -20, 
-23, 29, 71, 44, 19, 17, 31, 9, 2, -27, 13, -30, -11, 53, -9, 31, 
17, 22, -32, 40, 14, 28, 21, 83, 35, 107, 37, 75, 0, 28, 20, 19, 
-15, 23, -9, -32, 37, 12, -23, 7, 56, -21, 20, -31, 6, -7, -15, -25, 
6, 13, -27, -28, 21, -10, -24, -19, -28, 42, -32, 28, -45, 16, -5, -4, 
13, 36, 13, 73, 6, 12, -4, -28, 56, -4, 47, -20, 4, 38, 47, 80, 
48, -26, 39, 33, 20, -7, -2, 35, 41, 69, 58, 34, -40, 37, -19, 80, 
32, -17, -43, -47, -33, -16, 15, -43, -38, -40, 29, -34, -18, -31, 36, 13, 
12, -18, -13, 1, 0, -24, -41, 31, -36, 10, 43, 15, -21, -12, 18, -30, 
3, -16, 1, -19, -44, -26, -15, 23, 5, 5, -21, -2, -2, -40, -29, 29, 
16, 25, 43, -23, 16, -17, 36, -4, -35, -16, -30, -21, 11, -45, 10, 11, 
-6, 25, 36, 42, 16, 0, 37, -1, 0, -6, 39, 1, 51, -6, 3, -11, 
-20, 65, 16, -28, -2, 7, 43, 53, 48, -2, 30, 67, -27, 62, 9, 26, 
-64, -2, -3, 15, -74, -23, -29, 12, 63, 82, -46, -33, -33, -66, 11, 67, 
0, 8, 75, 10, -37, -14, 31, -42, 20, -9, -60, 41, -43, -42, 95, 6, 
-28, 5, -39, -24, -20, 15, 6, 6, 11, -46, 20, -12, 51, 41, 37, 66, 
-13, 5, -47, -30, -23, -31, 6, -11, 1, -44, -12, 40, 37, -34, 30, -31, 
-30, 16, 10, 2, -42, -17, 39, 38, 23, 48, -13, 33, 13, 14, 0, 61, 
59, -33, 28, -52, 7, 15, -29, -8, 15, -44, 35, 9, -39, -16, 17, -4, 
25, 14, -23, 18, 42, 9, -30, -6, -50, 10, -17, 12, 46, 9, 2, 56, 
-1, -18, 31, 34, 16, -13, 28, 16, -14, -10, 48, -4, -22, -25, -26, -36, 
-18, 0, 34, 13, -53, 43, 10, 30, 39, -41, 9, -17, 53, -12, -10, 85, 
20, 56, 3, -8, -34, 27, 10, 37, -11, -11, -6, 59, -46, 23, 17, -66, 
28, -2, -25, 9, 27, 3, 11, 25, 5, -16, -26, -22, -4, 1, -25, 27, 
-24, -29, 15, 42, 31, -6, -24, -29, 0, -37, -21, 15, 30, -2, -5, 48, 
32, 16, -17, 2, -33, -6, 8, 12, -27, 43, 33, -6, -40, 11, -49, -4, 
27, -13, 1, 32, 23, -33, -41, -29, 48, -42, 54, -10, -7, -38, 19, -3, 
-43, 44, -6, 43, 8, 67, 9, -30, 0, -32, 3, 5, -13, 47, 8, 8, 
-27, -13, -2, 52, 4, 37, 15, 48, 69, -4, 42, 37, -34, 25, 19, 5, 
11, 39, 43, -25, 24, 28, -14, 25, 0, -8, -5, -6, 30, 31, -29, 42, 
38, -14, -10, -18, 12, -32, -41, -23, 34, -37, -7, -27, 26, -40, -20, -35, 
-24, 74, 71, 25, 15, -26, 14, -40, -9, 24, 13, -29, -26, 78, -28, 24, 
6, -36, -14, 56, -53, -4, 11, 35, 69, 41, 65, 36, 52, 56, -13, 14, 
-24, 0, -30, 48, -16, 68, 24, 16, -6, -36, 54, -19, 60, 0, 17, 20, 
-9, 45, -26, -2, -11, 43, 27, 14, -15, -12, 9, 60, -16, 48, -27, -11, 
30, -33, -16, 36, -46, 5, 12, 38, 18, 6, 10, 5, 46, 30, -45, 52, 
45, 29, 20, 19, -2, 26, 34, 24, -26, -4, 28, 9, 6, -25, -22, 10, 
-29, 18, -21, 74, 14, 32, -14, 21, 13, -9, -2, 5, 57, 25, 20, 43, 
4, -3, 34, 20, 16, 18, 40, 46, 75, 4, -1, 56, 39, 35, 3, 24, 
-4, 36, -22, -14, 18, 23, 5, -3, 51, -27, 0, 8, -13, -22, -20, -13, 
28, 2, 13, -25, 11, 3, -3, 40, 45, 3, 20, 44, -22, 29, 17, -39, 
28, 40, 33, 12, 2, -34, 8, -11, -33, 40, -2, 8, -34, 17, 0, -24, 
-32, 20, -12, -12, 21, -22, -47, 12, -6, 40, 27, -44, 27, -1, 38, 42, 
18, -16, 52, 5, -5, 8, -39, 37, -8, -39, 27, 40, 34, 8, 9, -10, 
3, 48, 30, 7, -47, 39, 8, -6, 54, -10, 2, 44, 36, 15, -2, -15, 
-56, 22, -35, -6, 44, -25, 31, 7, 81, 39, -43, -15, 3, -26, 2, -4, 
5, -4, 127, -8, 13, 25, -38, -74, 22, -51, -56, -13, -35, -17, 87, -4, 
3, 3, -19, -12, -41, -22, 21, -50, -20, 0, -32, -21, 3, -4, -24, 23, 
1, -6, 12, -13, 17, -22, -5, -24, 8, 22, 58, 8, -25, -11, 15, 10, 
3, 4, -31, -26, 10, -38, 31, -12, -25, 47, 4, 30, -26, 23, -41, 23, 
0, -52, 50, -30, -16, -29, 0, -17, 30, -3, 19, 18, 31, -29, 39, 21, 
19, 33, -13, 35, 7, 46, -10, -40, -1, 14, -29, -37, 40, -26, -27, 33, 
2, -26, -51, -61, 18, 14, 7, -34, 59, 6, 64, 38, -1, -28, -8, -27, 
-20, 66, -15, 54, 19, -49, 14, 55, 0, 31, -35, 19, 67, 44, -87, 69, 
-16, 5, 36, -36, 36, -30, 33, 6, 9, -19, 32, 53, -45, -50, -2, -38, 
-13, -20, 27, -6, 61, 25, -25, -29, 19, 20, 47, -33, 7, 5, 41, -15, 
-40, -10, -1, 10, 37, 7, 6, -32, -16, -29, 34, 24, -20, 10, 4, 48, 
-19, 4, 11, -26, 45, 25, -43, -18, -30, 43, 46, -15, -47, -17, 47, -29, 
-17, -7, 26, -14, 15, -44, -35, 2, -9, -29, -13, -3, 0, 45, 33, -10, 
19, 23, -22, 70, 45, 8, 1, 0, -20, -28, 42, 28, 44, -7, -16, 0, 
-7, 53, 37, -38, 10, -11, 54, 75, -6, 5, 31, 5, 14, 56, 39, 0, 
32, -35, 13, -5, 45, -6, 7, -33, -5, -31, 23, -12, -46, -8, -10, -6, 
31, -38, 34, 25, 7, 21, 20, -35, -19, -18, 45, -38, 1, 42, 12, 36, 
15, -13, -27, 20, 25, 20, 40, 65, 15, 21, 70, 27, 7, 78, 54, 22, 
25, 59, 26, -13, -61, 22, -5, 74, 32, 78, -13, 67, -10, 75, 8, 3, 
7, 13, -51, 20, -33, 40, -19, 9, 12, -16, -56, -19, 36, 34, -31, -8, 
8, 0, -25, -67, 4, 37, -7, 35, 55, 18, -3, 32, 22, -6, 26, -52, 
-23, -27, 36, 26, 21, -5, -15, 11, -22, -7, -38, -20, -17, -15, -11, 5, 
16, -14, 43, 36, -44, -43, 32, 30, 36, -35, 23, 2, 41, -36, -27, 42, 
24, 11, -27, 26, 63, 52, -8, 20, 2, -24, 73, 27, 56, 4, 18, 68, 
61, 57, 36, -28, 21, -20, -29, 53, 26, -27, 75, 15, -5, 59, 27, 54, 
-21, 35, 17, -13, -5, -4, -2, 8, 41, 1, -30, 33, -21, 33, -19, 8, 
-1, 20, 37, -47, -44, 34, -31, -35, -17, 13, -28, -30, 23, -17, 31, -23, 
27, -22, 25, 34, 41, -6, -42, 1, -31, -28, -4, 25, 26, -21, 25, 28, 
-32, -8, -12, 9, 38, 15, 24, 29, 35, 8, -26, -14, -40, 42, -20, -18, 
-13, 40, 47, -21, 9, 4, 12, 24, -5, -27, -11, -36, 18, 46, -42, -24, 
45, 20, 23, 25, 5, 18, -1, 54, -37, 32, -7, 65, 22, 30, -5, -17, 
-56, 9, 30, -20, -1, -27, 36, -12, 16, -61, -28, 16, -13, 15, -3, -41, 
-23, -16, -1, -47, -40, -31, 2, -14, -11, -31, -5, 17, -68, -14, -15, 9, 
-19, 26, 41, 3, -24, -36, -41, 51, -14, -36, 28, 27, 33, 58, -23, -7, 
4, -18, -33, -29, 4, -4, 33, -18, 24, 45, 6, 36, -42, -21, -44, 27, 
-42, 39, 63, 29, 1, -25, -2, 39, 27, -44, 42, -10, 61, -6, -17, 17, 
-31, -15, -19, -18, -2, -25, -11, 24, -23, 56, -44, 61, 16, 20, 5, -14, 
-3, -5, 42, 59, 6, 32, 15, -21, 13, -40, 60, -13, 72, 7, 55, -6, 
-33, -26, 41, -8, 30, -9, 9, 40, 25, -16, 6, 55, 27, 70, -11, 35, 
-17, -5, 108, 24, -20, -8, 32, -23, -11, 1, 42, 19, -20, 0, 8, -50, 
-49, -34, 37, -5, 13, -5, 7, 13, 3, 29, 22, 48, -8, 7, -49, 50, 
-33, 42, 50, 17, 0, 0, 12, 40, -47, 17, -30, -9, 39, -9, -12, -5, 
-14, -31, 3, 11, 19, 35, -17, 19, -11, -13, 12, 39, -42, -9, -19, 2, 
-37, 12, 8, -22, -2, -13, -39, -1, -24, -7, 16, 11, 29, -27, 28, -8, 
-13, 29, -59, 1, 35, 26, 9, 15, 35, -29, 1, -37, 18, -1, -17, -37, 
-27, 9, 21, 12, 23, 33, -37, 7, 22, 6, 44, 22, 7, 6, 56, -18, 
19, 7, 26, 53, 13, 69, 39, 27, 10, 13, 22, 54, -3, 71, 16, -18, 
-26, -25, -24, 13, -18, 13, 7, 36, -31, -27, -15, -35, 53, 22, 19, -35, 
-14, -31, -23, 11, -11, -22, 39, -25, -29, -32, 5, -21, -38, 18, -37, 23, 
7, 39, 6, -4, 23, 65, -28, -8, 30, -39, 85, -40, -31, 18, 11, 57, 
-23, 28, 9, 53, -45, 48, -45, 32, 45, 61, 32, 47, -6, 43, -37, 45, 
33, 53, 80, 12, 9, -8, 10, 58, 0, -6, 71, -3, 44, 32, 43, -8, 
-9, -42, 16, 15, 16, 55, 8, 34, -24, 60, 57, 50, -15, 83, -32, 64, 
-26, 26, -14, 28, 3, 2, -19, -31, 10, -26, -16, -40, -29, 23, 16, 44, 
11, 14, -40, -25, 8, 2, -27, 30, -12, 14, 2, -17, -26, 35, -42, -10, 
45, -5, 72, 52, 75, 10, 0, 44, -17, 0, 39, 16, -23, 13, 32, 44, 
15, 15, -28, -5, -34, 70, 0, 23, -10, 14, 11, 59, 13, 25, -29, 29, 
34, 15, -51, 31, 19, 12, 39, 32, -31, -22, -31, 33, 2, 17, 8, -27, 
29, 27, -22, -49, -3, -8, -7, -15, 23, -50, -19, 11, -19, -7, 30, -23, 
-23, 16, 11, -20, -43, -34, -1, 21, 5, -8, -30, -18, 11, 12, 32, -25, 
-19, 8, -44, 36, 15, -11, -2, 35, -16, -6, 38, 19, 19, -34, -4, -22, 
-48, 23, 12, -25, 45, -29, -26, 28, 24, 43, 32, 27, 56, 22, 41, 30, 
34, 42, 48, -47, 22, 18, 30, 11, 4, 38, -4, 8, 34, 29, 29, 3, 
2, -28, -19, -55, -33, 14, 14, 29, -20, 0, -46, 4, 48, -68, -26, -18, 
51, 2, 60, -52, 20, 31, -6, -16, -60, -29, -36, -33, -70, -22, 45, 4, 
14, 0, -43, 8, -30, 35, 2, 47, -45, -47, 8, -3, 11, 30, -1, 8, 
-49, 48, -30, 34, -26, 25, 19, -28, 31, -41, 6, 6, 13, -19, -6, -45, 
22, 16, 26, 26, -33, 53, 25, -18, 2, -15, -35, 36, 30, 6, -5, 47, 
41, 42, -44, -35, -10, 24, 30, -11, -33, -3, -29, -27, -36, 7, -46, -8, 
-44, 33, -43, 47, 26, -11, 17, 32, -39, -27, -5, 19, 64, -14, 5, 63, 
0, 12, -32, -7, -24, 54, 2, -12, -5, 33, 23, 11, 13, -11, -37, 33, 
12, -50, -28, -15, -51, 11, 30, 42, 23, -6, 31, 39, 17, -26, 12, -5, 
25, 29, -4, -50, 2, 60, 56, 61, -63, 7, -18, 25, -4, -20, -72, -88, 
27, 38, 1, 46, -33, 1, -2, -46, 20, 27, 2, 9, -39, -27, 9, -27, 
31, 15, -25, -20, 12, -31, -3, 42, 57, 26, 30, -24, -36, -33, 0, 10, 
32, -10, -21, 25, -24, 32, 4, -21, 18, -47, 1, 6, -31, -33, -16, 12, 
36, -6, -10, 24, 25, 25, 24, 30, 42, 4, 31, -43, 24, -9, -36, -27, 
15, 21, 27, 32, -17, -1, 12, 14, -11, 36, 25, 15, -23, 8, 46, 42, 
3, 5, 55, 35, 25, 33, 27, 18, 48, 50, 18, 36, -37, 31, -3, -22, 
21, 5, 6, 10, -18, -31, 27, -21, -10, -4, -12, 25, 39, -26, -32, -29, 
-25, 24, -13, 39, 2, 16, 23, 11, 8, -30, -27, -40, 24, -21, 32, -14, 
39, 50, 36, 72, 46, 11, -13, 41, -5, 25, 24, -12, -18, 55, -32, 29, 
25, -36, 3, 64, -55, 53, 44, 25, 67, 64, 7, 68, 36, 21, -22, 17, 
-62, -20, -24, 1, 0, 37, 18, 43, 36, -8, 37, 16, 69, 74, 12, 42, 
-3, 44, 36, -57, 32, 51, 39, 86, -16, -20, 10, 39, -13, 39, -15, 33, 
-16, -10, 4, 20, -32, -25, -41, 6, -34, -43, -30, 36, -30, 29, 5, -32, 
-22, -5, -19, 6, -10, -7, 35, -20, 18, -35, -18, -9, -22, -23, -38, -8, 
-38, 4, 9, 47, 45, -1, 33, 40, 40, -3, 27, -38, 75, 22, -3, 18, 
74, -8, 23, -18, 15, 6, 38, 74, 56, 7, 26, 69, -29, 26, 21, -11, 
-36, -38, 10, -16, -59, 19, 5, 7, 56, 21, -40, 4, -12, -13, -17, -10, 
-9, 17, -1, -21, 9, 1, -27, 40, -5, -23, -18, -37, 21, -19, -7, 37, 
-36, -6, -29, 27, 36, 4, 21, -9, -41, -21, 28, 30, -38, 18, -12, -45, 
3, 1, 27, -29, 14, -3, -19, -22, -5, 22, 24, -48, 33, 13, 11, 5, 
-21, 14, -10, -31, -8, -28, 23, -36, 40, 36, -17, 26, 51, 2, -2, 20, 
-31, 65, 20, 17, 24, -24, 37, -1, 34, 48, -25, 21, -31, -24, -21, -21, 
22, -31, -16, -27, -25, -15, 32, -47, 30, 29, -25, -32, -23, -45, 12, 20, 
59, -26, 74, -28, 29, -53, -29, -57, 6, -33, -38, -6, -4, -24, 75, -28, 
28, -20, 20, 15, -26, 36, -5, 16, -33, 18, -32, -15, 11, 18, 6, -27, 
-10, 17, -59, -22, -42, -23, -39, -5, 55, 48, 19, -2, -8, 21, 29, -17, 
22, 30, -43, 45, -19, -17, -40, -30, 19, -22, -17, 36, 23, -8, -2, -26, 
22, 32, 34, -28, 37, 35, -23, -16, 55, -1, 16, -26, -7, -34, -40, -1, 
34, 36, 1, 25, -29, -21, 5, -20, -20, -37, 17, -14, 40, 35, 26, 17, 
62, -5, 13, -39, -48, 24, -44, -15, 56, 40, 22, -4, 38, 3, 31, -1, 
0, 52, -60, -18, 4, 37, 28, -7, -50, -5, -50, -13, 99, -4, -2, 9, 
22, 9, -11, -49, -30, -40, -41, -36, 0, 19, 27, 19, -21, -83, -8, 5, 
37, 24, 6, -16, 57, 22, 10, -36, 20, 43, -11, -42, 40, 49, 29, -19, 
-24, 38, -3, 10, -5, -3, -30, 17, 17, 29, 43, -13, 27, 32, 7, -29, 
5, 35, -15, 9, 25, 39, -41, 25, -2, -17, -17, 10, -45, 37, 17, 28, 
15, -42, 12, -2, -43, -22, -22, -14, 28, -34, 46, -11, -34, 23, -22, 28, 
-3, -10, 36, 17, -15, 46, -22, 54, 32, -19, 40, -30, 37, 16, -12, -10, 
-27, 62, 8, -41, 20, -11, 58, 8, 34, 13, 36, 35, 11, 26, -29, 7, 
17, -30, -3, 34, -24, 13, 5, 23, -2, -40, 3, -15, -31, -40, -43, -32, 
36, -13, -38, 34, 33, -35, -5, 16, -13, 11, 11, -15, -6, 2, 12, -1, 
-12, -33, -32, -3, 25, 56, 35, 65, -28, 44, 73, -22, 28, 66, -19, 48, 
-27, -3, 14, -45, 3, -30, 41, 74, 71, 2, -15, 44, 40, 18, -4, 72, 
-38, 46, 18, 59, -14, 31, -6, -13, -25, -22, -18, -41, 26, 11, 1, -16, 
51, 32, 3, -21, 19, 16, -17, -13, 21, 32, -2, 39, -26, 14, 17, 18, 
-24, 40, -7, -16, 6, -13, -18, 30, 27, 9, 42, -29, -20, 1, -31, 9, 
9, -25, -4, -4, -9, 33, -18, -2, 34, -19, -20, -44, 8, 43, 27, 29, 
-3, -8, 2, 60, 63, 68, -29, 43, -55, 20, 17, 28, 21, 28, 52, 46, 
-18, 64, 71, -12, -47, 36, -22, 69, 46, 56, 52, 0, 18, -12, -35, 17, 
-25, -13, 6, -5, 16, -7, -13, 36, -17, -27, -36, 28, 8, 30, 20, -52, 
-34, -4, -19, -21, -31, -14, 19, -16, -34, 19, -11, -52, -7, 4, -18, -12, 

};

const int8_t conv2_bias[] = {
-63, -57, 76, -48, -49, -93, -18, -57, 79, 44, -45, -39, -17, -49, -48, -40, 
-127, 78, 68, -25, -34, -51, 59, 2, -8, 22, -104, 16, -53, 11, -15, -46, 

};

#define CONV1_WEIGHT_SCALE 463.547333
#define CONV1_BIAS_SCALE   2731.071777
#define CONV2_WEIGHT_SCALE 358.042603
#define CONV2_BIAS_SCALE   3594.226074

#endif // WEIGHTS_H